[-0.8187897031269125, 0.12901647544433392, -0.15060796622855377, 0.626419850753106, 0.1076528138945565, -0.5756309075964601, -0.9453046490648989, 0.8401955659420591, -0.4692642687578824, -0.18295700456095632, -0.21958973445326135, -0.657146213453269, -0.7607212429115449, -0.031002449211678273, 0.49589276173849717, -0.4121428905914959, -0.11952726201870312, -0.234632104054308, -0.6098715589887427, -0.3264841953450577, -0.6117826317818627, 0.7366264368207207, 0.8037404978849543, -0.4362661130734664, -0.12073353040643349, 0.41075099455762065, -0.8953398421440053, 0.1055945243577444, -0.6286227174686899, -0.5161835178350344, 0.7749435278818411, -0.00119539214140285, -0.24201467314073774, -0.9272106725926584, -0.7225999741555718, -0.8178184523682012, -0.38282550802109067, 0.4003234170719095, 0.34715790136191954, -0.5754036911233851, -0.3637363058555918, 0.562853179361336, -0.8635811205247264, 0.06575992912292042, -0.29668221080830415, 0.42159008046240715, -0.13669011918575674, 0.3075085107842686, 0.04497241187578309, -0.9162344502130145, 0.6560148619283998, -1.9285844923802665E-5, 0.22368103313989177, 0.7956254058932769, -0.5962173023450341, 1.030926337436659, 0.93511009423817, -0.5732455985854255, 0.5318525300344714, -0.5375183706699509, 0.15225090490222093, -0.1984674245656755, -0.7804547423865339, 0.22065425550104312, 0.7957086517677702, 0.22291222572419125, 0.5447966812180904, -0.5490947845606785, 0.8973647190301224, -0.6136273595228221, -0.1903717628832729, 1.5864827580576506, 1.7338821452422168, 1.2492733060986623, 1.0119199243236856, 0.41011931535892565, 0.939725001445095, -0.11593378083177337, 1.000007844790558, -0.6050707112902767, 0.4631108211294621, 0.01969899745975228, 0.22141419435977716, -0.9236902032273577, -0.5149111842625159, 0.507391559539746, -0.7705195098017076, 0.4577544371705196, 0.38918050175249713, 1.061653917203744, 3.1556390535439363, 2.213879686027994, 2.6281967593864377, 3.843495809470027, 2.839537445959069, 0.8195337942194089, 1.3244335411800088, 0.18356487728528176, -0.22524743445455458, 0.14937182517479264, 0.9793465397515786, 0.16993121025650418, -0.1481048751003786, -0.6532271458487249, 0.4716003859901664, -0.3947606683500567, 0.4606527954415055, 1.5180466258008942, 1.5287742300063503, 2.8498027450795846, 4.570882305062762, 4.067230118020141, 3.6016400531070967, 4.752512317138138, 4.127429054240938, 2.2042566486629083, 0.9409438666866725, 0.6317573828290031, 0.5070253692444359, 0.5226881524121572, -0.9899058920104964, 0.6045881314448672, -0.4552321656799819, -0.7717044848170918, -0.5273933802196535, 1.4614180618765371, 1.968323228001846, 3.686022336254075, 3.0911914714161792, 4.665908127139065, 5.117413491304186, 4.3362952854845815, 3.2731020691260766, 3.9757781585035743, 3.4262049731498356, 2.2052004900152933, 0.3869432978966282, -0.6572409305628552, 0.14477832157469783, -0.54333065486533, -0.24555639141945362, 0.8212315925256828, 0.3324651256157573, 1.0718733159952127, 1.9001550649585612, 2.234378376884338, 3.1608648332581293, 4.043196674155247, 5.009495194469226, 4.972755317457007, 3.5409091179837096, 2.2682256995517003, 1.4150694364727676, -0.5532922894535779, 1.8564451086820437, 1.4707107144582587, 1.0480693001821895, -0.014543302091574123, 0.32565981731635435, 0.8275699693065792, -0.6686641792451447, 0.013156703067771629, -0.9485488549455398, 0.10557160162584944, 1.9377474357131668, 2.209983644220605, 3.2688847937891743, 4.249066678480196, 3.4851034691051312, 2.4838367877089875, -0.7765222804903437, -1.9343162584350424, -1.8025175611515847, -2.4008238493074385, -1.0882414714972641, 1.878076262747805, 1.9389048808875025, 0.9624069009950768, -0.2289166239399165, 0.1650899961848169, -0.25956908569112747, -0.34216133406469296, 0.11513982921077111, 0.4677568326516424, 2.772737059029403, 1.6392984364828211, 1.6014517307362812, 1.0699891549847689, -1.1462687102694735, -2.700706198097507, -3.6692981752917375, -4.541723988052295, -5.965363652132945, -3.1467724556792276, -0.9260316372431523, 1.6825542082203, 2.6621029427737852, 1.3700296014199773, 0.8070954301786836, -0.8444166084809654, 0.7889203846153721, 0.34786460642408196, 0.8663502520175268, 0.30320683489112854, 1.3830864802493723, 1.7652039731129883, 0.07024371035356294, -2.2608900761482253, -5.309045157442046, -6.778267134998415, -5.848593985011581, -6.749068589162179, -4.132360795513864, -1.7764802475677561, 0.36003100864863774, 1.7392725495001566, 1.6520604257449643, 0.8990553984039354, 0.3183475911279519, 0.03624519595294906, -0.5256644509872102, 0.8483109230763446, -0.692092805786141, 1.5475206516390587, 1.2774408173382894, 1.3928854737029108, -1.3848196724284407, -3.950254465809171, -4.401108173256524, -4.577061697701535, -2.2314045138256384, -1.8175022596164367, -0.9121628089359906, 1.2477421155045225, 2.5358339060001356, 2.646856035220286, 0.6997081005872857, 0.46011590435928706, -0.06901518640425712, 0.0514794750481824, -0.9190198292621032, -0.033351724953869274, -0.5427858018109861, 0.5144140002890643, 2.0214768408989583, 1.4503588965431344, 0.2149350858080599, -1.4331337942736373, -0.2745245730497948, -0.10424610549309404, 0.7280427647089002, 0.5307870571288703, 1.5022600144351803, 4.037307237696896, 2.830596421364275, 3.369285701491906, 0.8191457809297962, 0.045359607459070236, 0.011921355877474006, 0.01960622901292175, 0.3276961161712426, -0.7781435030751448, -0.4776118622691194, 0.642788515147483, 0.5901145833413107, 1.1659676935616285, 2.6907397842660985, 2.0639173124600316, 2.9339301545042935, 2.0431566114442203, 1.8491553383173047, 3.550107612533194, 3.789331924985164, 4.019860925025032, 3.374706239762745, 2.3389879847114416, 0.13471885172180043, -0.42389621619234436, -0.8147764553717114, 0.7475155439299623, -0.7027530131118724, 0.5273717630713249, 0.03556738726455597, -0.3920619906825302, 0.6980241148225759, 2.664343907263991, 2.8471535428324404, 4.122307345145154, 4.5977798685008615, 2.8191879738721055, 4.54277731081928, 3.2792976913477787, 3.4717452001601123, 3.4980188725867065, 2.786471406462902, 0.48636715029896754, 0.21506304303478868, 0.7240014770171327, -0.5043000187225282, 0.5328333821338349, -0.4173167621400933, 0.1290558698986449, 0.17437640171460211, -0.025511318183910094, 2.162536470161013, 1.4068909147866275, 3.705297144301213, 4.24375725785841, 4.676518455041182, 4.661998534231791, 4.054987292469404, 2.8709791110275646, 1.518779051016448, 0.9007926399903871, 1.7424744531473724, 1.3591468409652192, -0.7237234970732148, 0.37267257379308866, -0.9228667339259684, 0.3076143927231487, -0.8963680929849185, -0.10732410028798045, -0.7751837137924759, 0.30947121398183675, 0.4735377533794976, 0.4688398532070908, 1.7090367613625228, 2.0865793082325825, 1.7524409550009756, 2.7337615470976697, 2.879821278072545, 2.3504664423939245, 0.7807942466120978, 0.5141237552644814, 0.050553684434116064, 0.03991289927788456, -0.26158800438649193, 0.5785781344587286, -0.7603083472790877, 0.10453108024368607, -0.6244707443804178, -0.31698334406609124, -0.9744900456024382, 0.3267586175511874, 0.5201350727402714, -0.2098078774925258, -0.31544015901357597, 0.6268713120477791, 0.3665833913452258, 1.15014077336121, 1.1633031969988605, 1.1105045879167519, -0.5185551884340667, 0.1633869349374668, 0.860370058041028, -0.29207926182284316, 0.5078442010557755, 0.07668999162635498, -0.753146691651317, -0.5340182143570875, 0.6573960228022817, 0.060954383710123294, 0.05279070830895051, -0.5791907108195419, 0.7350727873846635, 0.5975994967768763, 0.9546887916070866, 0.8172956763799952, -0.6824904983450293, -0.172743037147212, -0.8454280689629651, 0.6966304992854923, -0.3495546461035213, -0.5166996059745163, -0.02555033120899825, -0.6245575964381046, -0.11459030428115527, 0.08276478424750966, -0.27202305507442115, -0.8315070760668586, 0.3588305014899167, 0.7940348283713792, 0.49290574352299776, 0.25993148381025144, -0.26088994645564834, 0.32100389264262574, -0.045018417658767504, -0.39344078993503007, -0.5234418653453247, -0.9329680885187641, 0.03892235684517976, 0.6627520790386131, -0.6752150382350495, 0.05033175371812028, -0.7093187471727321, 0.31329977126055675, -0.6451037298568745, -0.26404760509145464, 0.6605093645465674, 0.1992441452364888, 0.3544744096171495, -0.21606269880415896, -0.0026855389037310218, -0.029233167305305008, 0.03452790028314423, -0.020014188722551562, -0.9477117126152379, -0.5921637781967948, 0.7910363592982912, -0.7237547648497351, 0.7478410257495194, 0.03529224862158534, 0.2153424639055559, 0.18322038855913036, -0.8951515437632931, -0.5284373284358561, 0.4163195856878843, -0.061169711761121404, 0.1512116636127463, 0.2984980631828147, -0.5657162351870209, 0.9128181554624881, -0.9496664907266235, -0.7646821380587332, -0.7855626591742731, 0.2304616673255364, 0.6664655105138523, -0.05561506373226531, -0.12276044798492126, 0.6948708212411452, -0.16410207445317063, -0.06906117019900879, -0.6468356130990639, -0.25170937874590205, -0.2691581058597882, 0.7026002737829454, 0.8418013382356893, 0.42324887938477856, -0.13986089333816862, 0.5711694336315547, 0.010515785554595869, 0.03826870559252682, -0.4908964043161262, -0.6615922992734043, -0.6348304659576809, 0.7123947162730712, -0.29882280265393196, -0.5516118045411648, 0.8057175489495014, 0.7014416658509892, -0.8676230345561432, -0.8560928144782919, -0.982815992772714, -0.9823841729771022, 0.9614876013027911, -0.320103796557148, 0.09141458633179704, -0.12591174949784809, -0.16661707235618312, 0.6727219289711073, -0.5925800412313917, -0.10451554832865416, -0.07070339984593023, -0.7079876215272648, 0.8774534831420069, 0.6294956943225062, -0.1883815747331925, 0.3239939268872383, -0.7259495618343856, 0.00176939295582017, 0.9209583482616192, 0.5458630369811294, -0.534222951030221, -0.7364023429721783, 0.17895226851590967, 0.054941752443932165, 0.9600113792910392, 0.7207960731061619, -0.2524999140547358, 0.8890334619781222, -0.4227990840344864, -0.9871208837890447, 0.5588063696044323, 0.18696251001430086, -0.09359946425070167, 0.16812140987706573, -0.3506837559967987, -0.9141781396511596, -0.8021311502286473, -0.924090003643482, 0.1878612912397383, -0.05286243298483836, -0.5599430738674323, -1.0420648487423387, -1.2614920750236223, 0.7647135160438704, 0.38681815281030035, 0.8152775305971716, -0.8831148493780825, -0.9431759163506483, 0.9158973722052797, 0.9050618363810136, -0.5010049044396678, -0.8227669378988962, 0.7390567655293131, 0.38647759519110403, -0.6395164440091082, -0.12380879751543954, -0.3858550933910714, -0.6575092667042355, -1.2238705514805275, -0.3976271442452791, -1.053524802199093, -0.6978635495415471, -0.36021167733167064, 0.10281357631018427, 0.3479286897743592, -0.40868885105888214, -0.12248125663218704, -0.2893056222051893, -0.004598756211628752, -0.22213168813205333, -0.5467350285443034, 0.49226904913630837, 0.5718243892186468, -0.24312757140965296, 0.651773306019321, -0.7209593705002549, -0.4772309493010307, -0.025287791480722615, -0.20110605036436807, -0.00395335591880798, -0.9202107334372748, -1.0428415831263864, 0.47599304299198353, -0.2451489427978217, 0.08089848638793933, 0.5430095079981528, 0.9331943858253902, 0.09477455771241772, -0.5170830406145503, -0.2367174401073811, -0.273168566863293, -0.2440667107140418, 0.7398650762350197, -1.0503692630281396, -0.20800976180009667, 0.34274828308155125, -0.5538028595370086, 0.1388944933315593, -0.9470989093052572, -0.7660785773526074, -0.26820475136662936, 0.6611193152405047, 0.6719297028564049, -0.4169581810714798, -0.09794887535338018, 0.8983791887091748, -0.26199370203805544, 0.741437401927532, -0.7132585015708204, 0.2979101846890004, 0.6818087978613246, 0.41712107952900934, -0.8407848815210144, -0.6795475072367186, -1.083937448215438, 0.46142642271546735, -1.0036018537935043, 0.3163794692370391, 0.2468934142654407, -0.06011955451454417, -0.25281017242756443, -0.06337679689156936, 0.03335581900947855, 0.06587331041925505, -0.3184699033494842, -0.7234458342832718, 0.7861390633894582, -0.8035172101428101, -0.9526778424827522, 0.6667232226338153, -0.2821384548042562, -0.4426421237986048, -0.09261746423364482, -0.1492493681506534, -0.6171428633047199, -0.939586750420125, -0.7758775013099733, 0.8820188712307409, 1.2367648769667603, 1.0518686657395433, 1.5697874962589495, 1.3105566347462572, -0.2821250310661473, -1.0580508465125122, 0.23297940255283606, 0.6124301012246783, 0.992830453951063, 0.15965272874422243, -0.5148724898117061, -0.04541541939130996, -0.9690618086212983, 0.698563600894202, -0.597867768468734, -1.0369010607731879, -0.20485426431318857, -0.4377436055272526, -0.3322195294856169, 0.8070507130494982, 0.31683611061057865, 1.3345998679275675, -0.2524501433962945, 0.3636295993314141, -0.6766408713222636, 0.5908503352645131, -0.4214072560083736, -0.9469890252823775, -0.6264810210675343, -0.18870968556034007, -0.1780540917911022, 0.6813564045353063, -0.168730139172288, -0.8444126086720465, 0.5978308159014797, 0.3234453601849903, 0.4738611112092442, 0.8942291066931236, 0.2243630789384152, 1.0031723149741736, -0.4948442640572613, 0.11821715060529836, 0.056441445849599994, -1.0420862451976982, -0.3168522633232607, -0.9602889215071763, 0.44705110582371105, 0.280482526155329, -0.835923154704776, 0.41040885498875435, 0.5098027892642285, -0.7582768877339939, -0.359137757279735, -0.5362681481365073, 0.22809177914775317, -0.9025061432349524, -0.5860988547419956, -0.7593867187045507, -0.56794591976845, -0.7174317672311119, 0.34119398129756645, -0.7135275285714452, -0.6799613946411502, -0.7013418131921627, 0.3425319082434653, 0.4100737189112687, -0.7822527637572014, -0.7192243408028328, 0.5746782551105932, -0.6236098043640479, 0.8317671790026382, -0.07029323852736642, 0.232668900849893, 0.024259854430504043, 0.6242672156098783, -0.9719103493707605, 0.11551598008060493, 0.5761710466651422, 0.6057738994846704, 0.27727117468749646, 0.13565651361294748, -0.9530147314666364, 0.572744873068633, 0.2158905452639214, -0.12786675707364384, 0.07475336607177575, 0.6980279534089154, -0.2459383664636699, -0.26904011350153123, -0.9940157639835023, -0.4185043523240928, -0.2022160367168886, 0.28926448838080404, -0.4191389554375971, -1.1332297003983758, 0.26986338205048677, -0.10064295041961822, -0.03149268510527914, -0.8989430607964719, -0.1407818132184091, 0.4653078465045636, -0.24466104402795363, 0.372207704631634, -0.14725575089284507, 0.06753993738740227, -0.4130785054820929, -0.9561096980109185, -0.09398829691724588, 0.02938939555368342, 0.7292360958538853, -0.01656056239289283, 0.8845158779917924, 0.5884592061303231, -0.1891859528060468, 0.5694001796551784, -0.6468663319353057, -0.5094058172301162, 0.35986216248852565, -0.7255212043870888, -1.4095512860301684, -0.6329041856327362, 0.6081658359281473, -1.126192526300004, 0.49973098708682545, -0.21180178613498177, -0.9069972020955946, -0.47559130314752446, -0.8544379324333196, 0.1209831178490746, -0.6275813145315241, -0.7167801580117537, 0.439393725598273, 0.5883947569961167, 0.7231114486251948, 0.6784111388499521, -0.6999724169459236, -0.3046213080437177, 0.29112801915949377, -1.2100563756683902, -0.4305767017648823, -0.25639733825342415, 0.6551218351837059, -1.0225127050972738, 0.43681570423089994, -0.9112579889256699, 0.9429536592496379, -0.43261075157922796, 0.3468724562893683, 0.03554467553039217, 0.2730026812993662, -0.9822461630790398, 0.6830072240691258, -0.4132032044911518, -0.8540257898429039, -0.11368229622136015, 0.18514832051680413, 0.039538020683791884, -0.3456685967836763, -0.5681818711386513, 0.5107309195559435, -1.003978454884322, 0.2487447016313973, 0.19283697696636523, 0.6548813640856406, -0.5881122439572686, 0.33275069542303326, -0.5164180231556533, -0.41942230068984543, -0.42952733863760423, -0.7188511970854192, -0.13270917189312947, -0.6401396949749112, -0.6576233464411898, -0.8056872269732741, -0.7763383408720334, -0.4137832936313606, 0.5184465895637387, -0.4889694718080528, 0.25614709780436207, -0.015444497943538391, -0.7190687046195976, -0.362801631272893, 0.4127245274559196, -0.2499358879596571, -0.3080695862090062, -0.09123281760734178, -0.7766601741698141, -0.8262808168674021, 0.9917544877541464, 0.6841605055639577, -0.8034005408414442, 0.8758866388475886, 0.045747166859733346, -0.03455551140300053, -0.9313717945692147, 0.015135366190826671, -0.13459840808212198, 0.13852196802590364, -0.7868903592108356, -0.3777922316572921, -0.2072017671904563, 0.12705268437855585, -0.09769672693740669, 0.47236952953916156, 0.6990314365196235, 0.6217638472368224, 0.14029258658308855, 0.7442178545258806, -0.6689652801053405, 0.9047879961565977, -0.08987928966500736, -0.8428966804157687, -0.20281803972788048, 0.21027263347205905, -0.2526762653969512, 0.18979958795573015, -0.8733510494498847, 0.6030668425471535, 0.8282749408477436, -0.4153456104387869, -0.20187561623255523, -0.1216101937730114, -0.01882318105577796, 0.38583098572439223, -0.7961503526364462, 0.149377812984955, -0.6187482018367128, 0.44290621886110637, 0.1117480196770535, 0.4512277446901689, 0.0759832430600278, -0.47493417865492243, -0.6283187362396792, -0.03717467274055952, -0.05681119785470267, -0.024842740843250333, 0.34245824823866183, 0.24816669576229405, 0.2021236697866445, -0.821653558439095, -0.18331927512341714, 0.3006555163936316, 0.17787569516094148, -0.96992748623156, 0.5852162862495116, -0.8799028607318031, -0.3381437607804382, -0.9474270958726824, 0.19835870018821355, -0.9638848407959077, -0.08364660518702971, -0.14523563495103575, 0.9784278490736293, -0.920925212839637, 0.13855671831741592, 0.2104123018400595, -0.12229274199621333, -0.6919423669961278, 0.02965384534127926, 0.19995976995918657, -0.609173265002101, 0.20302971024344454, -0.9951698663248401, 0.5749891656185175, 0.40777697395645274, -0.014334352098450026, 0.5538032738130554, 0.8112156713137467, 0.6367241625318565, -0.966239193006277, 0.21667151036290422, -0.9357557723768684, -0.047174825808317646, 0.4186038512221119, -0.16771821585271598, 0.865788089104003, -0.9205326643285417, -0.8792001994920488, 0.73433099238064, -0.9345125211009693, -0.36628726774213044, -0.7065113791760325, 0.8443084666023428, 0.3730709872475144, -1.0114172645622288, -0.0539067973587514, -0.8756123851840348, 0.8590209349764677, 0.8399363919255103, 0.5093334219800969, -0.02609632971650222, -0.41926495222128485, -0.12936403113020764, -0.9400858218338743, -0.8394435206746391, 0.26120425114353746, -0.2588081386036081, -0.1594394780670835, 0.012839484418028171, -0.08934512826981231, -1.079643819914898, -0.15018454158908107, -0.1827433536268469, 0.3663238111943402, -0.1486323768022766, -0.2989150696282685, -0.179322325511193, 0.06256423145858359, -0.7273989491118207, 0.9306471596748278, -0.8159832861046088, -0.16366024801071177, 0.4350800750214879, 0.37378528091379304, -0.33362892085318846, 0.01884995892770091, -0.25385320976121556, 0.5549960406747344, 0.29430754277438703, -0.6659702360697682, -1.0944800194514384, -0.28132532854501446, -0.6357025735731514, -1.0339435060734328, -1.2122017928098159, -0.1802353549591356, -0.24498648534191264, -0.39220354024423176, 0.8983269115460882, 0.36266215360113474, -0.9385381693889188, -0.9329683659862801, -0.34053006418620335, -0.979551447292538, -0.5617738943357895, -0.7858988669763055, -0.48158417411726046, -0.5640967175120095, -1.15073899957237, 0.4695274717960014, 0.085727939328076, -0.1884077089824085, 0.737830287668285, -0.9066079560621775, -0.4572074698940205, 0.42594937623735823, 0.1602185286151294, 0.2388122768485966, 0.07836927606087406, 0.4467621421779626, 0.6885308019278407, -0.2781203222196047, -0.6412717616529249, 0.04076144016463739, 0.6170556905894263, 0.8118554304034038, 0.32847979955490963, 0.12501124554611853, 0.5116371316684462, -1.1858534021361617, 0.2978765590648544, 0.3751616868418963, -0.7322877121078178, 0.9551000549134347, -0.9166439276814381, -0.28253333444833084, -0.052156424204461496, 0.3071174839573971, -0.6535843464686171, 0.7813244548523897, 0.1100265636209492, 0.6351864902960079, -0.2426833527595976, 0.031064766424326148, 0.28515923003539084, -0.2592799698091716, -0.4094925403849732, -0.7376016777504303, -0.204374674804215, 0.5837770620956554, 0.02731598893014046, -0.3635106144331243, -0.17565574738833326, -0.1469917103176159, -0.4201285726816905, 0.7326180065316998, 0.3698761275924665, 0.9203118328724815, -0.4674511479374793, -0.5529474430107564, -0.7812317600027658, 0.7723763637253531, -0.8662046791347793, -0.911533287298941, -0.8310390983864321, -0.6530105085263846, -0.8511430412425057, -0.07774098575861718, 0.830378390783233, 0.8053801527240934, 0.977657754950151, 0.30197793091484215, 0.5376981586156827, 1.157686739272808, 1.0106589041790677, 0.4584748388447677, -0.651416351486699, -0.693362502386077, -0.928499933073798, -0.6400074978613086, -0.5799711915291843, 0.8311484976324098, -0.14695147801782102, 0.7916684827140867, 0.32809055232384443, -1.0670573058237307, -0.6312333188972742, 0.18794351824436106, 1.153993186138763, 0.10034667858503915, 1.1463759019709343, 1.0160301722253775, -0.4520787510459939, -0.24165922003637108, -0.9537458197995446, -0.8797771337639746, -0.030989527637540586, -0.7936857267657041, 0.0037683651490400217, 0.8871096273947463, -0.9819186485600988, 0.2627696472761758, 0.842642179915212, -0.305871458990588, 0.1104026218712093, -0.0022616051978309633, -0.5292691986182428, -0.4545360330995577, -0.344198422498964, -0.26676697926326415, 0.10995220193143138, 0.03240064811188852, 0.43082650512704235, -0.0570962733037417, -1.109078974428418, 0.24144591462500858, 0.05254299328241702, -0.12424716999916438, -0.8356960852842309, -0.2762464403225884, -0.46439106640837857, 0.3737881865891923, 0.6854509734715807, -0.004543748574602391, -0.2377131888687992, 0.409311627495955, -0.1684716433808899, 0.47052056336722786, -0.0034155886630005366, -0.01711109521967365, 0.766824700614241, 0.40553854954016155, -1.0530478187509447, -0.7029379183419706, -0.7740293798333668, -0.9258995566379072, 0.01329032315010431, 0.3620860066132469, -0.6473002729817195, -0.5907063788494715, 0.7568098108532495, 0.07703406480663096, 0.7892255845519114, -1.0125794722304526, 0.7427155363825625, 0.03141353524078869, -0.019211913505454387, 0.3359733681538219, -0.7846483716489726, 0.6640482174352916, 0.7727066042362456, -1.1681461640472923, -0.43520670633286374, -0.99685850739563, 0.28722984679035096, -0.8557374429218372, 0.8502261285808015, 0.003560642153877247, 0.8900545333374357, 0.046659007312779055, -0.8223905543276546, -0.4189159191849547, 0.7957840502865413, 0.5607111069917603, 0.04589900845256808, -1.07197354214232, 0.1784167317625254, -0.666298513164721, -1.1567706488305465, -1.1327986160993049, 0.5106753317652281, -0.12610386640736812, -0.01921993136101231, 0.6816003340734555, 0.7675215532081221, -0.02967882659618665, -0.22527599288585726, 0.9810616592511214, 0.8911786308082843, 0.7934726550819269, -0.24853252673763282, 0.8409557503028482, 0.3894694963785945, -0.1594484916809347, 0.8912231584317604, -0.841607029087443, -0.8726930679406288, -0.9096239391416551, 0.2265646745491933, -1.1237335025769166, 0.3277981026569696, -1.1234042035608571, -0.4346196519233561, -0.5602380176116445, -0.8046539668530744, 0.5021364155046728, 0.030210507840881546, 0.6749866751961253, -0.18234684053796252, -0.49308129102061016, 0.33684660990513926, -0.06195445777891345, 0.9690039338911832, -0.9941281622600904, -0.5014059376358285, 0.018312582437450656, -0.7307528725452185, -0.273688877886075, -0.6906477708574529, -0.4798537794688484, -0.8072123957833904, 0.6907875792989621, 0.48750758264349453, 0.41513273938807205, -0.7493208929052195, -0.9669185197947466, -0.6621978172658055, 0.057639234317866966, 0.4256171990690209, 0.5514386501151207, 0.0824888649505926, -0.28385059273527696, -0.7774095535048465, -0.11565052511148849, 0.9313771871951086, 0.7337986525245462, 0.5061445255609299, -0.6975680081803641, -0.0514595796563359, -0.26054407917489764, 0.664588113144466, -0.15330507639577398, 0.03093853399232818, -0.7860858498693171, -0.876417944985782, 0.4633199752406645, -0.46113312976415494, -0.19457924282348785, -0.9161996649495276, -0.7821964986719041, -0.8707779256212147, 0.9703333155232896, 0.5948904792108018, -0.1583692829107758, -0.8097758983779177, 0.6178323594012266, 0.04358460966469154, 0.5365513989548997, -0.6478341516086414, -0.2584736541555236, -0.6852746989212569, -0.6705720454220904, 0.7509740213532005, 0.3198441220666551, -0.2973688658043749, -0.7107617692333714, 0.3027082175398132, 0.03144200802232421, -0.3889831970251052, 0.45406189377609785, -0.5379025094502092, -0.7305860837249714, -0.12302507896540149, 0.18162730620917944, 0.9259160759272346, 0.28714200662128286, 0.40408406149721204, 0.07661139154048408, -0.05240634068782674, -0.6882867906817483, 0.7071956805007398, -0.37541950565669535, 0.09639388651722627, -0.016380412403640382, 0.9714096258720805, 0.25512668913819375, 0.5692308606410328, 0.5715331600992641, -0.7313939432703171, 0.6733182914548208, -0.48576130159940556, 0.08783384854990195, 0.6833463883892041, 0.9786749040278051, -0.8195863301446751, -0.3801083738342663, -0.715490015765587, -0.6371827618989102, 0.19967663839394864, -0.9890525222526794, 0.10406166702191566, 0.9733588750420996, -0.19987652043229698, -0.6566058708920699, -0.4135003844481877, -0.0900321920233782, 0.34172709134904755, 0.5982043053993131, -0.6576948708795809, 0.28024790981690795, 0.20385877408774933, -0.6685494174256673, -0.5526188576638098, 0.7094536602182384, 0.7602302315688972, -0.7575090960434143, 0.029473413276485682, 0.7917448893589925, 0.9442091795189252, 0.10453828945296409, -0.572460005382886, -0.4113711391719251, 0.7375592375665817, -0.3170276723819624, -0.1865512628346296, -0.5475018480374775, 0.8083297538845147, 0.9999723562199045, 0.8592080293874655, -0.752292067702123, -0.5215185160803457, -0.4379226161362124, 0.7428517645024112, -0.6979378697836639, 0.2197632154619206, 0.04484450155921142, -0.39274739621797616, 0.34210654353639103, 0.9561492276010153, -0.6879382333563899, -0.5610306217664071, 0.08630637672450125, 0.5995426536712415, 0.6322396800247264, 0.24847174867940963, 0.15643187689816973, 0.40321262146712417, 0.43237861352077867, -0.5906123584362688, 0.5767584347310493, 0.14548028032675564, 0.25904606969644856, -0.7778522172984014, -0.7408055248933836, -0.809249675823523, -0.2451241637497505, 0.44476132023242543, -0.6003521923518297, -0.7956656005152888, -0.5885779330000794, 0.40541053353980033, -0.6264893911014515, -0.4342398887868549, -0.10399491072211814, 0.5203195079899601, -0.5296470374822939, 0.3890246842107606, 0.2327948757002567, -0.2220689343885233, 0.7878587669756849, -0.2143728011160706, -0.698323577112766, -0.7378605131198083, -0.593294655117581, -0.09823584813706056, -0.9149286631923184, -0.5538618086235367, 0.10794993436012691, -0.4820952706070597, 0.7641698167166693, 0.38029677118460326, -0.030761633871461646, 0.8433729901306143, 1.0394558506583222, 0.7824647169502532, 0.2666741200060525, -0.27255942976419695, 0.47028796165031506, -0.8575348564121786, 0.7179589938238182, -0.12357878547309986, 0.5147478056448874, 0.518682531793293, -0.49525801708520195, 0.13660180753579856, 0.1642643217664336, -0.36622450867579565, -0.36792539107175354, -0.38814948249526204, -0.5160096880912124, -0.38941657868560353, -0.041991421795164366, 0.42327883882709605, 0.3435431336094447, -0.3362990252976523, 0.33278229943700327, -0.2856049148718809, -0.6501040649666369, 0.95155767113062, -0.16234179565443352, -0.10545520130181552, 0.58976563458251, 0.019106114530282624, -0.5183611285184347, -0.45733045641432074, 0.9801015172633237, -0.7191523694624554, -0.045264376194018074, -0.21588331432404476, 0.30660192248469936, 0.7872562654874515, 0.22087997656137742, 1.3531331197591208, 1.4072470093596456, 0.10871796469049429, -0.5100503224050181, -0.18080105507000882, 0.8834133141252488, 0.2746070700168913, -0.9454440654180909, -0.87812575070048, -0.021912141870456692, -0.8511423483781776, 0.2803424112315947, 0.19271619367925302, -0.668701460015709, 0.4886092354844667, 0.9055799382867695, 0.9747662224854092, 1.4965985290099406, -0.5379603345225226, -0.08946615870995053, -0.775557718840119, 0.7094801211897004, 0.7487287439810298, -0.38507725117876795, 0.9889974682434175, -0.7337346799611162, -0.601462388101239, 0.533374635910222, 0.1470489978188514, 0.4475342253897605, 0.9476398397882819, 0.5563698818034238, -0.23423851461145506, 0.7832243021292071, 0.810475085158392, 0.17284033228340825, -0.2399370190789752, -0.6127366223539708, 0.9029366251340666, -1.1431654505700446, 0.543240387538506, -1.1383777960006352, 0.3531778443777979, -0.2924824845916197, 0.47258234135848365, 0.6654677648962689, -0.2526696021728295, 0.4403851566883563, -0.36531839782147846, 0.9024685408796677, -0.5135119100187362, 0.3816815646580983, -0.6734228431375061, 0.22137860571288934, -0.39256372058491235, -0.6076521102065181, -0.7847410900172663, -1.0161715889204275, -0.3660472307741068, -0.32176144790023065, -0.8687872717675225, -0.08882458818097974, -0.3789923829816018, -0.44171024184101493, 0.20656310510675466, 0.4764224394749634, 0.8099348713659407, -0.2908795413160785, -0.1731302019926131, 0.787972998338845, 0.7598391387363348, -0.2729822149747853, -0.4524224822281888, 1.00709496945004, 0.7942223280026465, -1.1429900908296076, -0.9706845402274819, -0.13270617403029555, -0.576157091578725, 0.20602816718094244, 0.08593197330976314, 0.4836758515597742, -0.8680674820939406, -0.2753695941948376, 0.8776431756243117, 0.1431925457549239, 0.6867757582608268, 0.9263149642934294, 0.44674863609241644, 0.9317754235838022, -0.41779605516015467, 0.24182709559669424, 1.258366970687618, 0.720413097247554, 0.1267690441876548, 0.5345194855630055, 0.1517271079764906, -0.662848370378647, -1.3001182644349676, 0.7415849786100975, -0.5429980281554155, -0.792487013046909, 0.22659562597073452, 1.278583087652744, -0.30772241518478943, -0.15031829284720424, 0.10191242886066065, 0.2514608270693981, -0.8085996300182732, -0.9761954939344214, -0.8867929966414335, 1.093657479560031, -0.6673785968239815, 0.4452286406482677, 0.10974283419947387, 0.6115015381930204, 0.2968819254024619, -1.0043944610899593, 0.7784884710277603, 1.135032293760057, -0.049486217316725103, 0.5747645432250401, 0.5679670764070419, -0.5815349928639779, -0.8482773252678777, -0.3715582586411388, 0.27575852132406775, -0.08967410916481522, -0.16848343636190166, -0.9093706087997281, -0.5588736587639787, -0.10055342219892727, -0.2908616925622012, -0.32982164982061196, 1.2179082967165415, 0.6372022430312296, 1.1153809010836384, 1.1826540081667252, 1.0480272950831282, 0.377158695491543, -0.48519204218684825, 0.3554899406723457, 0.2979502825427117, 1.0098613100843756, -0.2988202841364651, -0.4805876021579981, 0.914857242870454, -0.7577701298226447, 0.0777856330513862, -0.7063024708663771, 0.47938915459983267, -0.16145226222767434, -0.08066519891944124, -0.23524622063435857, 1.2630643374845223, 1.048798319114919, 1.036803930218588, 0.22229709151994972, -0.1225459306245784, 0.3406293767812905, 1.4115261742321226, -0.01030388242305638, 1.2393331243026722, 0.8852389711945959, -0.7255354827325947, 0.8439081386248751, -0.25027676234891305, 0.5328297581075088, 0.8290575124380366, 0.1625211919140606, 0.6665899972040227, -0.5840367727363085, -0.45120861134087376, -0.19908692248553175, 0.7715008068450986, 0.42095714908583876, 1.5013003632967648, 0.05193723752242321, 1.4500044466409725, 1.3647050057010859, 0.006972962186643956, 0.1300337693519113, -0.6810203306715299, -0.12348917316292737, -0.557088413766511, 0.3882488273881405, -0.46299118700669567, -0.07138203378494268, 0.18491418279554983, -0.029246122189045872, 0.4907415743493824, -0.1690088818110663, -0.7574600174675389, -0.30116651658033256, -0.27393444803893735, 0.8679853687689945, 0.5480854048328494, 0.3931238898684501, 0.5383575738171797, 1.254322136988226, -0.196253556478227, 0.6228967351546337, 0.7134813908110246, -0.3778731970652376, -0.3803702376044072, 0.39244054741702533, 0.24204247232807075, -0.39370985068289666, -0.3146458565704766, -0.6301308648917705, 0.7978485502071607, -0.4287555767338143, 0.2665728377689023, 0.6700265241316278, -0.5608765336216014, 0.13129962331389408, 0.20194438415257898, -0.7689275583760684, -0.21013066264569655, -0.8869354603859941, 0.012756316093430729, 0.7768121079987442, 0.3804887579911722, 0.731519287530027, 0.9568164615198381, 0.7935734349475976, -0.7715415558717437, -0.9404082045252571, 0.632876164689445, -0.38236368989302605, -0.03764117483842161, -0.7295871590116297, -0.8934321982142837, -0.9449922103044535, -0.9407577085973617, 0.9050640024785184, -0.174049690689561, -0.3576231869264402, 0.1170177135492831, -0.6589355453747222, 0.16451779540905698, -0.3254500323692942, -0.05772690219140614, -0.754503441851609, 0.43647927617451426, 0.6607988729269013, 0.7057654123590642, 0.8682077350189845, -0.9426737998008634, -0.23004096530527862, -0.5275054292629686, -0.8165535624195865, -0.9376603750093914, 0.6144465437647042, 0.5511890952339257, 0.577894769855549, 0.4450343873624139, 0.8714715984352204, -0.704199428021788, 0.08965229118117488, 0.3189371567267888, -0.953873270013678, 0.19746344507902044, -0.04387220663237623, 0.4077676032472569, -0.9603191401585076, -0.5778884465342979, -0.37229023482945767, 0.9014493414069891, 0.05193083005607546, 0.31659674909127267, 0.3645611122397989, -0.5573250307176958, 0.8889788485246457, -0.1954797400938929, -0.011614528465328155, -0.36982553689057623, -0.3006714743573533, 0.11765602671811859, -0.505295509036617, -0.7507813765883087, 0.8182559903187774, -0.19610969262544486, 0.7494568839922733, 0.24236593512633342, -0.47064251133923807, 0.6379956221891938, -0.153468158089602, 0.3351667325540246, -0.7190683332116828, 0.6530264747783818, -0.7327722157048171, 0.18523541480103373, 0.17709049686545408, 0.3087675174219172, 0.4402183863548805, -0.05973635800892985, 0.41181623461388256, 0.593925474917605, 0.13403607963871667, -0.8292139706154357, -0.29877985488067155, 0.6814671122065091, -0.5294595323692471, 0.28651678255412294, -0.18572553604736544, 0.7783434930158443, -0.44460432495595503, -0.25082412280080657, -0.31382000215550243, 0.6666651910832231, 0.02509045416595414, -0.33615627400806286, -0.11721511696382513, 0.593886578616189, -0.8522456585252897, 0.6596812375347554, 0.6941448805028009, 0.23516327366678427, -0.28911600666547854, -0.6102008839311011, 0.4419988174769652, -0.4090873565789348, 0.12490198148957003, 0.22540442079045142, -0.9036576308347822, 0.8340593140761277, -0.8734385201446913, -0.06644970206263734, 0.7517928811787215, -0.7417009358091676, -0.9707139598955619, -0.5375712677216014, -0.026217386698394102, 0.6581073738134551, -0.6458926091211931, 0.9715740088781308, 0.9468369614907368, 0.3277063781872847, 0.38378319992849513, 0.1849213476443106, 1.7537783834570015, 1.3621561701903593, 0.2250187583165669, 0.20599027966565833, 0.9216379427493093, -0.43014885344547826, -0.6352670959371904, -0.7854071827667783, 0.8064252438593695, -0.7412705626544892, 0.5033441226084481, 0.15058752279673776, 0.8195100060550102, -0.46829559830386047, 0.8716664005625963, 0.5755773741624194, 1.592200329806821, 2.4411590278548982, 2.0241907378020803, 1.667852804629702, 2.9613065823624924, 0.8283457209362268, 1.1033303631984406, 1.1515313698243346, 0.13524302053404025, -0.10325740395781315, -0.6916018441074789, 0.9032758689784317, 0.9905991233256412, -0.7842863615876524, -0.27766133403103993, 0.8735740321224649, 1.1575611120029161, 0.37548223956585647, 1.5271415001989792, 1.624860972679648, 1.8393032086974435, 2.086727414994067, 3.777088260007209, 3.3405194926162567, 3.894847396380314, 3.5668780608058106, 2.852582894861729, 0.27674261064777833, -0.8873300367788319, -0.6268521418247189, 0.3698412867773959, -0.6988220342722888, 0.953512124640087, 0.5010726937957777, 0.39797529969695644, 0.26711573665342875, 1.123420098082512, 1.1007891030626902, 2.5128113467613695, 2.3258035060508404, 3.015002847875898, 2.3036020202669247, 3.4299923920297135, 2.6404599308264958, 1.2547686669173925, 2.23080570021452, 2.493279667397505, 1.3938996114029467, -0.8033669731568152, 0.730130276088349, -0.5559871289642788, -0.2850932343141719, -0.8352974354297434, 0.4182148608023844, -0.16585402375664887, 1.3836166492719324, 1.07818667033495, 2.953950973202519, 2.1289134167437234, 2.8737596575658158, 3.1394050504094677, 1.1511396799325633, 1.8029474497058113, 0.8834622247566946, -0.23457388397248832, 1.1857777291642766, 1.109844616690466, 0.3773538074743677, -1.011664004230707, 0.5442677598540898, -0.569100161170286, -0.5524256953179654, -0.9290415379663299, -0.6568658657257372, -0.4770539078748586, 1.6324644245772408, 1.4350772452675917, 3.2139883692937024, 2.4932856882490224, 2.2684423289132143, 0.8293693528315156, 0.5155180191235669, -1.4067507978931526, -1.3010876628644639, -1.5458274228419402, -1.257933354933653, 0.41587795010169326, 0.6083105125739815, -0.5451897831588921, -0.2604486864790843, -0.7570099988524712, 0.5659701468591583, -0.5125063440187245, 0.5353853096639544, -0.03742582353069776, 0.3013658332541108, 2.6023309536542722, 1.6256066235360493, 1.0629026767980583, 0.265442464925993, -1.013896403284966, -2.270388401167387, -3.239793996023028, -2.7050768266968355, -2.803803782764199, 0.11543778751003922, 0.9533552131176843, 1.2179421810927846, 0.08663984127525333, 0.45222441472821623, 0.8088774256724638, -0.6153447618196062, -0.41618495407043626, -0.9168354086505272, 0.5065753784334299, 2.072998210006029, 1.4209313678493125, 1.1408396576401927, -1.3133996430280075, -3.6090476408849796, -4.822767167294772, -3.9643700225145317, -3.1062085790843197, -2.5423350030395993, -0.2758801554905617, -0.7337185995746569, 1.046707999593904, 0.9777415116695058, 0.9305977888250319, -0.0291813618453215, -0.1639897956238907, 0.0632783345242467, -0.394564661265511, 0.036591564226447625, 1.191085112277866, 0.4874084749371701, 1.0027799851746388, -0.13465078211109532, -2.813088113462153, -3.1896032310918785, -3.6414461233288544, -2.174561270326138, -0.6814197467557329, -1.0720041902435673, 0.36594184524463746, 1.6366474008666125, 2.46446615910795, 0.9179179860213245, -0.4630015514836994, -0.047976111623928334, 0.1600336250216341, 0.4809931633184903, 0.07242737495300824, -0.3736987434774438, 1.3917508326372323, 0.45771121864087116, 1.648609673921947, -0.9129404382017012, -1.6794184421027851, -0.44544631798392836, 0.40776345606401415, 1.138765591976647, 0.4669725022436215, 1.967388892926212, 2.1388015557122997, 2.5987036019863337, 1.757245627622409, 0.3697379025722141, 0.829674350483322, -0.09276461320953486, 0.3851353693608184, -0.3680646744689282, 0.599138887045186, 0.022203681094864588, 0.4632001898116845, 0.12895906055836392, 1.5630246677252906, 1.445938549702991, 1.6990516034217535, 1.8772162739325706, 0.7954414338373775, 1.981546442531289, 2.9405915046025255, 2.534204537282124, 2.2597092310460902, 1.42151533499894, 0.7161224141370088, 0.5716178356766914, 1.0225041206156635, 0.06719752815077028, 0.20925320330517416, -0.8217064217721362, 0.7047173652590581, -0.8864198761817746, 0.7986327903211442, 0.38188078042512963, 2.226750029399055, 3.0454634606739277, 2.891409902877265, 1.8270016452317037, 1.9231414347333293, 2.1713071478478456, 2.590564127128103, 2.307930010655712, 1.4436423986808882, 1.1268278541546821, 0.35403849747082466, -0.09869928893690302, -0.6968930999291463, 0.15955736668473117, 0.329957552980334, -0.49741044287459335, -0.9869380172314426, -0.9730142392355899, 1.1747271439054625, 0.06142428385706049, 1.8520628015211933, 1.1931617902588298, 2.415168844526288, 2.818062073939403, 2.627608240890072, 2.354798532025787, 2.7411974860886894, 1.4546618171343002, 1.299067656992535, 1.3646297600445794, 0.5482522225369549, -0.7300541873030858, -0.3832745362502593, -0.6353175752260265, 0.14127545825200882, 0.6183579882048587, 0.09138561699394465, 0.8424655516915945, 0.5447492715602522, 0.347347023930521, 1.1572073382322976, 2.053715513946288, 1.6910872915992043, 0.6644961009045456, 2.3124273728344824, 1.6899300811644506, 1.761615841321135, -0.02183293303541131, 0.03660830728311478, -0.07257431162295556, 0.1151907937104996, -0.9214978335212312, -0.6713143655745767, 0.7692561445771573, -0.44132515265605643, 0.628497040592598, -0.1720187111526888, 0.5849532857835943, 0.24587913228984512, -0.8216210841450562, 0.7125607395748255, 0.34309649403073766, 0.30613123488822164, 1.0370883932462436, 1.0930977477282267, -0.3940324440888728, 0.817950181926654, 0.8985796639123642, 0.4161227671415911, -0.9284672830175167, -0.26698763035719403, -0.7386708136655684, 0.9861717469160945, 0.9949201213620065, -0.7511180478073594, -0.9368626415166847, 0.7291783836884606, -0.39991816764296456, 0.9177104601534148, -0.2784296807186246, -0.061730710733328226, -0.5995046836502385, -0.6726958754033586, -0.7309005156413886, 0.9654191217028684, -0.9683268039312727, 0.0787315334543427, -0.8573538052396203, 0.009438282707192255, -0.6250797717919642, 0.5634715419918811, -0.10739532876452844, 0.11204517647656721, 0.354341974431962, -0.7068434430668853, -0.6160441149190252, -0.21032144134391184, 0.1278853658193111, -0.974500857797891, -0.36551123462112833, -0.7117993576680741, 0.8741286332751254, -0.10613042936994273, -0.5871613071689737, -0.4336875442565304, 0.8782276680989631, -0.48920637031266273, -0.17131348124380794, -0.740605636237031, 0.9538314846381338, 0.7784447933712682, -0.15897057428957592, -0.46590404709713407, 0.8743929026489619, -0.12289532202295095, 0.20943876371033698, -0.3060333619533997, 0.13060687803420667, 0.19463250145790023, 0.7164754340255011, 0.46827948924441065, 0.8848723248542454, 0.49011380656211206, -0.9617152415935971, -0.2005278357846383, -0.1295332664491715, 0.13363383420792943, -0.06541399531846315, -0.908933811460737, -0.31434039191664787, -0.011323096079580486, -0.6267020498729787, -0.8573769940632083, 0.8227372295742796, 0.9770598060301512, 0.3956759531742926, -0.99146951425183, -0.2898302648793596, -0.5905952959876297, -0.278388841096654, -0.454185028169654, -0.988036002571007, 0.6805502597224968, 0.3637783291011907, 0.5110513201949513, 0.48374492961023047, -0.9281469133125668, -0.1506443249550061, -0.2686854135324351, -0.18981888769373403, -0.8784605848537994, 0.040455209147368394, -0.9285960497605847, 0.9874084462474266, -0.7974827566920197, 0.9998481598559636, 0.7498481561207253, -0.9034833256573929, 0.8550351375063764, -0.13444201897770117, 0.8423757560938296, 0.5738739549219871, -0.27693960250526517, 0.27845501945653933, 0.766423228614137, -0.5393498438187063, -0.08448431217353632, 0.539662041706842, -0.016209118085406798, 0.5528816491678378, -0.8595395042029728, -0.5404467490998436, 0.2891426027124341, -0.1182361028092188, 0.9560608365095733, -0.6413549273479433, -0.7564768146188962, -0.7824048296817585, -0.9155886061844951, -0.9985250423722035, -0.634052665656204, -0.33278937012676457, -0.7606794672961323, -0.41594170031157157, -0.8447089527573722, -1.112387817855619, -1.0706389426144762, 0.15768432347460562, 0.5989625342081206, -0.035785399009098884, 0.8439734129678191, -1.0302523784874547, -0.6351786961646869, 0.28408112352496045, -0.11332854187795971, -0.968568741936152, 0.5368737446414941, 0.1413135781992963, -0.6581714762317542, 0.665399044906851, 0.6481339591831448, 0.6534842089605513, -0.4060814974821507, 0.6576629124347513, 0.001272723679397326, 0.23679344748174236, -0.07060611679268919, -1.468004886684329, -0.7899934965372966, -0.7070535962897883, -0.5488064007559972, -0.9272365763114292, -0.20231449733855544, 0.06891675532891343, -0.7607370775860691, 0.18805535229203474, -0.21482321702454338, 0.2962830072583484, -0.8923474924921568, -0.8616301436930554, -0.22649765342401368, 0.8044088303969325, 0.06203412463510654, -1.4913107176184324, 0.23254104768488346, -0.3771861609959991, -0.4031096791256972, -0.4089825585344184, -1.7682044994747168, -0.8969354529463242, 0.14591930653803714, 0.4155574215827861, 0.6343604084512222, 0.15057731126659324, 0.14274195552017077, 0.16377535166796253, 0.0025212465673211085, 0.29378125393431354, 0.894238240794237, -1.0400156048962041, -1.0414826515824551, -1.111032756575322, 0.08127115389519418, -1.6677566442021379, -0.5554520943729794, -1.5406129963217448, -1.3282802586375322, -1.2160110599894716, -1.4077650200290301, 0.17771066246683917, -0.7432250293938643, -0.6704650880727213, 0.37071236320273254, -0.46970500659223086, -0.8691568965927612, -0.6411488695380709, 0.35130164372176653, -0.5729235219562182, 0.2932133568280224, -1.1119633346666842, -0.49861719185282255, -0.7247595053008284, -0.02430433996287889, -0.33323136825918176, -1.2343092984962032, -1.670920652069097, -0.8427035560825925, -0.6727881374338586, 0.37300075739423644, -1.1245345387003203, -1.4941225858572948, -0.5890389813244705, 0.18467091628949944, -0.07205766852827879, 0.25444157360662834, -0.5720657900071202, 0.7403376273235442, 0.4545665474936526, 0.6769206304102021, -0.11757251267841651, -1.500281674271877, -1.4037983794658841, -0.17320033858081615, 0.07472651121645325, -0.31258021968207067, 0.953632007681148, -0.2819034428835978, 0.3832366387393324, 0.3101215196796997, -0.023114805034868822, -0.42598312523021775, -0.0020158180130636335, -0.4821512930497644, 0.27466585772440494, -0.9789984440247803, 0.7844615530115564, 0.9095628755000849, -0.8581655701851049, -0.5663454879094616, -1.0905807752045023, -0.6377898115381361, -1.2659147811088982, -1.3641642227355866, 0.14601064203658656, 0.9152560631163167, 0.2920918573542193, 2.153714096849341, 1.064808678689607, 1.254443644622719, 0.035088976715228856, -0.6364543045333948, -1.4402359492895052, 0.3512697962564356, 0.4573002403960525, -0.9137306908258205, 0.8378393222963316, 0.3999433741197157, -0.7644051782560397, 0.1391624217465649, -1.0311782679372767, -0.3192998458074748, 0.4710133740576932, 0.30823000094866304, 1.4653259657025952, 1.220472558889514, 1.0574919283646844, 2.2342870552051677, 0.231789925487033, 0.6506049996605152, 0.17267398719862428, -1.4425152874252745, -1.2107887372219266, 0.8754636323878185, 0.1277420674612531, 0.12527426964593835, -0.913719364584149, 0.8409498130108984, 0.9058193265358658, -0.23585869002058757, -1.1053861123865414, -0.1442078477666536, -0.05213467679408541, -0.14806368676692636, 0.7249628476396142, 1.4529265472195736, 0.18675541489234834, 1.3574562875915408, -0.039815486721408444, 0.5285558277244741, 0.30459157211891574, -1.1450321999476791, 0.05897690199500719, -0.4675034721634992, 0.1259435177042957, 0.6241540921352748, 0.20573875610540293, -0.16744607573422104, -0.2304972232145183, -0.8646130743418323, -1.363482362382481, 0.12774548437586475, 0.652135347884663, -0.22765498398720002, 1.02170361352445, 0.7899693084007913, -0.05240417492359541, 0.48468666102616964, -0.19005616183697452, -1.635706153942212, -0.3247091298437716, -1.3900252087270129, 0.26864431545925493, -0.6170583224153123, -0.884293472806285, 0.461273219629041, -0.39454375894188565, 0.35842703685705657, -0.5945595795158903, -0.5233393356317981, -0.7485269526721074, 0.1888963438903599, -0.8064547687352557, -0.23270138903999538, -0.7122613619570104, -1.022454122820003, -0.2897590034849897, -1.2132025599697347, -1.1948892066029655, -0.5229573226057262, -0.6364552235465853, 0.053282120977431804, -1.113285818720933, 0.22311101148587742, 0.3933348177219435, -0.9144433464270894, -0.4367724757473306, -0.8639147297795029, -0.1663015873003671, 0.17412932826043465, -0.30806707696540503, -1.2288158026480185, -0.8329230852638994, -0.08469535362327613, -0.8647020535748876, -1.398953802097078, -1.7583151983385021, -0.016237391422545808, -1.3643611805034568, 0.004513269976779124, 0.015850788581174998, -0.08884202871304521, -1.0046363843426256, -0.7908774141556194, -0.498203113189273, -0.14808459649823624, 0.008551828981625986, -0.40544870433332375, -0.8055277024975046, 0.04877694490028329, -0.3979846908670569, -1.3461981934327076, -0.18962444429850395, -1.0173782718957698, -1.3226611958090104, -0.21669177247257715, -1.6804603235449405, 0.27453628257867696, -1.1558567011597776, -1.2542731404104939, -0.709603543191125, -0.7513313890228428, -0.3234769976711668, -0.16146129746067117, 0.2713422028742221, -0.3619085898924026, 0.2894306205555113, 0.2639486878462627, -0.06244822909950146, -0.993301878937793, -1.1031114371590436, -0.004312604510666805, -0.6648453491681229, -0.47021529986823046, -1.1984425736967579, -0.9375026241280474, -0.4901265366036986, 0.16052189562879665, -0.18538278016891327, -0.6439514054775786, -0.03133082494738559, -0.30801540832482405, -0.9243106935044604, 0.022535810741811334, -0.7954263243890745, -0.755796243851814, 0.8386420304700093, -0.7278574961584805, 0.051531634474041244, 0.257978174832384, 0.9591005725361829, -0.8928719195920682, 0.23230571613744286, -1.1063535260869035, -0.45023058722107745, 0.2950207140754887, 0.5996491690958946, 0.5956897731230497, -0.8259336565646204, -0.9985168333747364, -0.3905571819907873, 0.8254924926707267, -0.46329036883974956, 0.3196764930468358, -0.2634926894510706, 0.26573187425051903, 0.5479025737414285, 0.36112449266566654, 0.6386805449983808, 0.7435364455325641, -0.799371803737547, 0.8050586496415476, 0.9006993117930324, -0.10082202340324192, 0.49011503274866997, -0.5475062681226388, 0.8339017945953655, 0.16764559839524865, -0.633193056790466, 0.013597282388427905, 0.7874312312534882, -0.7583877393521936, 0.9602405779029859, 0.35295222276323956, 0.8234698616672056, 0.13262230895769345, 0.8634059226856299, -0.627747422751072, -0.8508550146869935, 0.529015391395064, 0.7280157965198346, -0.3669277827979347, -0.738420790358803, 0.3376507178586213, 0.565257239720012, 0.6718360761654621, -0.588148945390935, 0.950701128976946, 0.9497353670175734, 0.20104790894109803, 0.783797414746775, 0.20289722051269124, 0.3700928692972006, -0.7861119444639215, 0.5508025602130238, 0.8216615283404662, -0.8661954247455412, 0.4923840358772167, 0.8236956885313287, -0.4252190620157099, -0.7730271016933112, -0.13580851921466408, 0.46930914767836757, -0.599029757422022, -0.11751006304834627, 0.22928030843927694, -0.28072461460358045, -0.7006890251787373, 0.7771423787837355, -0.6338877625201502, -0.44363918701996563, 0.898228128928483, -0.8421796065177254, 0.2362949160713841, 0.9988258946482864, 0.3762080859484871, -0.4282203005236518, 0.7133086807656779, -0.4684015797562855, -0.4493090972927354, -0.6644706577969887, 0.4458230192224426, -0.7917403506050789, 0.8558005799901908, -0.6063649359681055, -0.08659819960107339, -0.7651775121486373, -0.7212173954126794, 0.7988967781735788, 0.6278249418733083, -0.8169348276083186, 0.21155788601565992, -0.31178202555167045, -0.05117887657490093, -0.532768763393337, -0.19316789288729708, 0.3329231050513308, 0.9260428585532048, -0.8784264427761967, -0.6736902164071087, 0.6108752938931901, -0.7112528981732769, -0.4644650762403072, -0.27019038056324773, -0.923014871292031, -0.22672919945653727, 0.38645378459472257, 0.8845092014416024, -0.28148066861317106, 0.7510948197429619, 0.6593379056329112, -0.5145190036492788, -0.7013924170399746, -0.7707861199730933, -0.6677491754220579, -0.8016377928697711, -0.32926889743737453, 0.8556679994388162, -0.3721936616581247, -0.5043754287518691, -0.30683926057025246, 0.38979428642730024, -0.7883628887929103, -0.5235553615907491, -0.5563606179535329, -0.7047843546376041, -0.17063252035641224, 0.33151458389540883, 0.1238539913830438, 0.3254649201594491, 0.670638228776635, 0.44076729860089425, 0.48370616966212326, -0.2737311520014456, -0.7032515155305508, -0.08670661283427994, 0.8940914239468407, 0.6377334605003429, -0.7724868415544759, -0.010909880392415559, 0.20931970888277335, -0.26657254317756646, -0.49610403365355477, -0.6422797473935259, 0.6174901903303471, 1.1042112941480162, 0.23282710206900104, 0.7916845554328764, 1.2045449239741834, 2.2006512665590696, 1.6030543981565228, 1.1584760548181705, 0.7990582873210977, 0.3982047026309085, 0.593937197597171, 0.6584630643006886, 0.9337188778372314, 0.24549834930866976, 0.7034148141252747, -0.7486260416994036, -0.8576566652682363, 0.802119855450815, 0.1355063566833832, 1.1201117385515644, 1.6746004663693808, 0.4699505988474658, 1.1622870594805192, 2.677602307692851, 1.1466730433970407, 1.950816264591293, 0.7328529240827398, 0.9231220755207648, -0.2024252470919831, -0.17387595559989466, -0.18682805626460183, -0.12864504684092326, 0.71657709665786, -0.8020426866279046, 0.3538172423447523, -0.21171377615246575, -0.3089318366212249, 0.2454248009781681, 1.1664461645921558, 0.5454759492766001, 0.5502016609403877, 2.6276679299021892, 0.9112064776371357, 2.6034862607607616, 1.6383165420994161, 1.7929011968532416, 1.4023081526305683, 1.9858708318798688, 0.21920636726340834, -0.6784446982365768, 0.444957004959994, -0.6156567501710546, -0.7476011101673488, -0.9879625756779746, -0.25336538751045423, 0.6567306787376482, 0.34696135228336444, 0.6514240555450281, 2.0416771342202398, 1.4485700219772877, 1.7770772497906084, 0.8770927548580095, 1.5164076398237716, 0.48745739800477755, 1.0601865059841804, -0.2392112830909151, 0.5494078364623778, 0.45905207487265026, 1.0559199156695969, 0.0957480275346447, 0.9732851020236135, 0.6396442625257057, -0.6460022365283451, -0.2923927375246689, 0.5462907231769822, -0.22969567735868615, 0.44985320013740543, 1.7898780340345448, 1.2851691187917682, 1.2480033890002147, 1.7875364586309945, 0.8831579960622629, 0.4800979723337823, -1.520413953802659, -1.907417304083791, -0.6862799986892832, -1.21232058521271, 0.7407848172231657, 1.8395292905954037, 0.653672374055946, -0.6018637064829506, 0.8546935655559995, -0.7568597664057513, -0.6675043563422958, -0.25477224688114236, 0.5247369183905783, 0.7004469049223561, 0.7560449455427719, 0.7969203422463507, 1.301468898095037, 0.6523572861255112, -1.2564994140016232, -2.5718188589029576, -2.4705173588841194, -3.054497460641324, -2.462397078333985, -0.6919854819138903, 1.4173308056233223, 0.18403371238239513, 1.0504123448426137, -0.5733689301965258, 0.4771222384910998, 0.9363276541356687, -0.054346581574913344, 1.0023491754077132, 0.19016436426538877, 1.5703790038404237, 0.926748534224922, -0.3088755772800421, -0.6434951399303054, -1.0698360438375876, -1.997586111048507, -2.115931574247387, -1.9003471101546805, -0.911167670244702, 0.0048120390570100795, 0.27873117301935774, 0.5614530328443312, 1.2852002662442672, -0.4035840195369817, 0.2479763569047482, -0.9795436562916862, -0.7400869782822352, 0.7785493454385789, -0.2502418896098056, -0.4070931329795473, 0.9165448237191738, 1.0140799917809327, 0.7323445489096647, -0.5150836458565925, -1.794238370009374, -1.4560340394067364, -1.2497565230128498, -1.1224791012601723, 0.29721554376711995, 0.5505063996718934, 1.880445744212837, 0.3116541898320911, -0.31986248328037487, -0.6609401925829723, -0.2049425710387278, -0.06388034479968807, 0.6115577622490236, -0.6070862289890013, 0.30825668477935014, 0.28668369240592506, 0.9875035243898608, 0.4894897786189244, -0.6140297633969147, 0.23350226136151245, -1.414011521876891, 0.8167333629340515, 0.9650431858521625, 0.1923234573662524, 1.7636392709447075, 2.36692980343615, 1.5727046311845936, 0.9844094326084802, 0.7079909096387333, -0.008165840558118776, 0.6913903796212392, 0.5542702595657301, 0.16511096227179056, 0.5582012083810937, 0.10754137034529936, 0.367490863537868, 0.5664101695069022, 0.41195445051178087, 1.7277118569777774, 0.895668526031913, 0.949911974704036, 0.004226947146167847, 0.9704690340530466, 0.7623952939483963, 2.2859712037903437, 0.6029522989543876, 1.5424600976488196, 0.015173136961468136, 0.34645752207147834, -0.8549496861751109, 0.6942702666832902, 0.3154563643090531, 0.10857132438670769, 0.2958077807813756, -0.3790955468095379, -0.6471310925240279, -0.17468939350522047, 0.7599849626544393, 1.3868473158977157, 1.1038466562278624, 1.0264906746807048, 2.292148669385838, 2.0616591920929914, 2.4357747093533795, 1.6518705634556825, 0.9145283137775353, 1.3147222008032768, 0.2085073706177298, 0.5286878851361112, -0.7301693806050964, -0.6289812641620701, -0.4829704020638228, -0.29012898368859363, -0.9325215271339382, -0.500129310012146, -0.47432496831772014, 1.1464329204869381, 1.7702591322188188, 0.3565143875649122, 2.066879512970575, 1.5605410491494898, 0.5750104292447527, 1.853595125656641, 1.835830535640953, 1.861414563809396, 0.2722815186901791, 0.33434782200164387, 0.581145592781623, 0.4382517665557968, 0.7765060931294936, -0.022038558156713878, -0.387293954305469, 0.5227980437773423, -0.5657568215283848, 0.650290396948288, 0.2958335099002356, -0.4946949873439765, 1.359895580702654, 0.03551611345586289, 0.7192934961078988, 0.06049003388893307, 1.90306618462972, 0.6200193457562816, -0.030554661535019192, 1.549767717564733, 0.5365177992803697, -0.3510278727686748, -0.9561966089354691, 0.16164414607705213, -0.17246874352700162, 0.0638782270318739, 0.7306203468937109, 0.8754523715351117, -0.3339569306064377, 0.8992079718705319, -0.1405052188070355, 0.04169799005087748, 0.200768765646161, -0.3769370590541087, -0.0628877091501376, -0.28972758897080236, 1.3071553677140295, -0.34373445581116974, 0.5172689139335461, -0.23341300094826536, 1.040448092773327, 0.5036410447045812, -0.7163710793141332, -0.17858743105915065, -0.2941662498072238, 0.1787879628278941, 0.5146690829852829, 0.9262088666782708, -0.24154397307405293, 0.6020252302574982, 0.9720946708001672, -0.17136269942735596, -0.6071187011203326, -0.21904655498392167, 0.7299388971743365, 0.3166304097569971, 0.31090597225315947, -0.2899958869886156, -0.8464958144777934, -0.01228771501426221, -0.9308809017182748, 0.8641249855310708, 0.2903674655468113, -0.619049792427515, -0.2262378856500916, -0.7563918585945064, 0.6458952016637913, -0.9727620106332853, 0.09040682463350036, -0.2512532664012752, 0.26870190503884644, 0.6961798240733346, 0.3598457922538201, 0.602609699862403, -0.47993959988709384, 0.8264496820682704, -0.6438380877123926, -0.48774646264394167, -0.9271180024007406, 0.5947677330599426, 0.8285838282578738, -0.8522996086118886, -0.9430004421284469, -0.7021788132116613, 0.10467559379999436, -0.3769267468278903, -0.5348842153703555, -0.09678562126016677, -0.44259131444835775, 0.7958999624842724, -0.31102211246183487, 0.28172680237060277, 0.18378311291774496, -0.7014911782969867, 0.16702193506494745, -0.17239950201140045, -0.9295493495372906, 0.5370652637874653, 0.07786843925198902, -0.13138418316767098, 0.05946645100653547, 0.14714499797659597, -0.6686470291672408, 0.7603695828748107, 0.7439294296542922, 0.7418207008313535, 0.9949508206878206, -0.7670799469565235, -0.5808080777285058, 0.261923566883828, -0.0847279183705929, 0.2553564562025332, 0.6454545862275376, -0.32035335015952515, 0.2550865479256987, 0.45268889711857924, -0.3285305861631213, 0.36926059740833617, -0.6744619530640296, 0.9394367180235312, 0.14180280426258754, -0.9014708209891804, -0.6558487050779898, 0.32653734406794793, 0.17979496693807423, -0.803945529087972, 0.3488626555102352, -0.38597141520091616, -0.6758957985902421, 0.2819259280837098, -0.9939363889841807, -0.30166081758925967, 0.512821095982449, -0.3337179753466168, 0.7715558983718269, -0.6959159180629627, -0.1808234757372763, 0.41415406452555475, -0.6288470844287326, 0.2726692482136399, -0.445637789038553, 0.027745354174523815, -0.3825084765356867, 0.5069338305105366, 0.08865938156215288, -0.26361697723425476, -0.9832311643944482, -0.4035668150602134, -0.9958411481715473, 0.829051662687347, 0.6600321172401461, 0.4595941706997048, 0.6942907568998498, 0.17688854845130084, -0.7113035671611208, 0.6351487228618196, 0.14934824712916295, -0.273103764525657, -0.9033343430375179, -1.0814472648480926, -0.8520408434792901, -1.3084319951405439, -0.5816594904445817, 0.7110384530085981, 0.6903790376694167, -0.7655582886934659, 0.8312444911670707, 0.4870614821215251, 0.981027754833911, 0.09716322549536428, -0.7101273972447419, 0.18245500432006762, -0.24095719347790567, -0.13486192571424793, 0.20731196584092845, -0.8686609479566069, -1.2045589084138486, -0.845904850348384, -0.5683534555638999, -1.5982428282485814, -0.8164770236700369, -2.3033334081597503, -1.3300078086983724, 0.5637827501088474, -0.7837921140849117, 0.792741033154829, 0.5452840316932048, 0.959196566992569, 0.28133955008533545, 0.6568143882400534, -0.1994036170986078, 0.0634523661218191, 0.6894320278841164, -0.3222170845954971, -1.2728469639364248, -0.9097359720856806, -1.4851682109585647, -2.261204523238725, -1.680747998712605, -2.492505881924742, -1.4105521782928174, -1.2182541320221003, -1.3687790774982038, -1.3336886349462183, 0.7291653699981541, -0.477393835976894, -0.10795623715969715, -0.858097883974692, 0.6303895665917915, 0.40262563787576694, 0.38669456412597863, 0.28624969021488617, -0.16158626818087116, -0.1547442764439175, -1.5059751042071747, -0.8472581625970188, -1.1286602015266698, -1.4062151761508919, -2.0615423035761697, -0.7747574718963626, -2.4380048333137405, -0.722654040857315, -0.530726700640658, -0.5302076402948717, 0.3803664471533599, -0.8166587402247691, 0.7489414836179609, -0.17977130165275712, 0.8763040375700119, 0.08378666292240175, -0.6883016263832485, 0.17139070179651048, -1.8540163223515163, -1.3325648593373565, -1.7157182889495397, -2.950700161302231, -2.888977978982663, -0.8327933306591557, -1.4478981128729063, -0.11546335733236864, 0.16164705496892567, 0.14533557383552875, -1.4980169100326837, -1.123427145453335, 0.7571666416962339, -0.13176416413259887, -0.407058668006105, 0.644455006365829, 0.49291872171934176, -0.7806611991574948, 0.2800597780360574, -0.10875697479614563, -0.8580770143065463, -2.576681785808152, -1.0133836322348282, -1.3563913779691095, -1.4265120317360669, -0.7502699574884878, 0.6558622748655129, 1.2602426979539203, 1.6347591038747806, -0.434228678886055, -1.4443907436321413, -1.8908154660747805, -0.43631870771794884, -0.7849540337286763, -0.18919424987771816, -0.1733034947642733, 0.9174028167802021, -0.42707010621897284, -0.9795895552066589, -0.5708436351072061, -1.9166699788553088, -0.4749117997809933, -1.5969034525190995, -0.25069218593013026, 1.7661553217443189, 2.3465091973451737, 2.828144689139905, 2.376628380814962, 2.6345585518260637, 0.2376835795654772, -1.5430162880936011, -1.9683916988784937, 0.3685836914399012, -0.7635370829506046, 0.617549590002207, 0.6957926619952999, 0.19917343697073336, 0.0931198616889115, 0.07260591141126706, -0.2873428724724369, -0.658681231195636, 0.6518416128935862, 0.05072916434617474, 2.9705147326014427, 2.0666299533254797, 2.567202802555355, 3.5282024145539017, 1.8361721313763752, 1.1657630169527422, -0.24146606862811862, -1.0411655916420126, -0.489340993750468, -0.1328785040777924, -0.21331182440038932, -0.661716042797782, -0.3135387889980372, -0.028842746572190766, 0.9550359376059893, -0.5102957901583579, -1.123460219204929, -0.22366835833192616, 0.10658664066790523, 1.6110225727343643, 2.5157597232607403, 2.7959515946946163, 0.6933948844651162, 1.7397927201101127, 0.9572191597707755, -0.1644024477004289, -0.7970163446401524, -0.5547558100664516, -1.2685213033270237, -1.0390255409543674, -0.08509018116309248, -0.37690860889145417, -0.1437139565049066, 0.0976088747881501, 0.19194575506328063, -0.9420629484962991, -1.6364633763187983, -1.6183624456838945, -0.6258214163419302, 0.14588792087547633, 1.0976427444600847, -0.2958764948889512, -1.1843251878738683, -0.21208576035904525, -0.4770516088895536, -1.6309677264480962, -2.450419692105009, -1.5041893492950285, 0.27158741270618475, -0.7617751954554088, -0.0912377677988369, -0.20847399249640475, -0.14581560508001323, -0.48576997093048063, 0.4197062450605645, -1.23347911834447, -0.3843505495328926, -1.2658211610254448, -1.7336275384388202, -0.742117376435258, -0.5825006382150593, -1.3858698587013667, -0.48433722544345315, -2.042418103426071, -1.267110181405168, -1.5715840252765434, -2.0813602087021916, -0.7003832394475586, -0.8078428584294983, -0.9977255425070966, -0.30874743224952006, 0.9427867833084826, 0.406576004219831, -0.2563856721747231, -0.7023618493049733, 0.7291223529441773, -1.2487796561566793, -2.159980133619786, -0.7641840256558496, -1.6629690638300105, -1.266652175289289, -0.8967274654475567, -0.879128842033103, -2.4748373203504435, -2.023343764990005, -2.2632665774739547, -0.7219662762034008, -0.1965099887532907, 0.10104742033530191, 0.4002229078600149, -0.5941116727950767, -0.28043629920323987, 0.8425555897375772, 0.35553200384262884, 0.712164057622894, 0.36648393959237274, -0.5653108888079033, -1.2401921177855348, -2.231240572759625, -2.649567230197289, -2.3087056998289013, -1.3538517348910097, -2.625517755716902, -1.3184570364999784, -1.3967542547882599, -0.2863209469375175, -0.06736827915296306, 0.6239531397714531, 0.4370342331971901, -0.574783625118616, -0.4847936224387354, -0.3219893480527427, 0.9469481808986218, -0.766482339896306, 0.2674383517533192, 0.08067593089809404, -0.9226251895659836, -0.10224258284246217, -1.2196595279337403, -0.12784108722786236, -1.269966049054789, -1.5370492744811919, -1.6206453010343147, -1.6210059273491464, 0.14967132996622656, 0.5466846129196131, -0.796521169150926, 0.28666292380147146, -0.740745568782519, -0.5590965307452127, 0.5329649898913473, 0.09325204795726427, 0.5102047124800537, 0.9225311548679448, 0.2022213727431059, -0.048894552629123754, -0.14717891704488026, 0.5062952671882317, -0.4710679326233113, 0.3581273428320144, -0.7081654635773166, 0.22466751916983463, 0.18786683296914655, 0.6855389374014937, -0.29472790431823764, 0.0720221348269165, -0.1837641998159515, 0.5356545407980221, 0.5653919097175936, -0.10660932434426013, 0.6241314072767361, -0.2807173004612158, 0.3366735144662283, -0.45326828353128396, 0.26944324596858044, -0.3910207910191531, -0.7045651505718149, -0.777214799508012, 0.7316956021747111, 0.6906367176240632, 0.9720581869626798, -0.9006807113836025, -0.9714953628180356, 0.34736057712036783, 0.9645351184389727, -0.23082902150011533, 0.3056206831741865, -0.20292847375397632, -0.9793108486269422, -0.6750738896581383, 0.7296180350037125, -0.4759257496112226, 0.17786152781345477, 0.8262470953303975, -0.36299103478825345, 0.5816623478716554, 0.32873773649237215, -0.9491650062309334, -0.5885371890434867, 0.8237830389617489, 0.4822570911200296, -0.08594772413537081, -0.3192624896674576, 0.17809616287356753, 0.1361404219713216, 0.6410397242277139, -0.22667706647759317, 0.11161069330508247, 0.7518137327904508, 0.07423305098243271, -0.3914997327067049, 0.7351536663571208, -0.9251228743106841, 0.561774491884536, 0.5313596418959285, 0.8559762806640243, 0.3806227521601053, -0.9169038718955531, 0.11833976020894557, -0.042604157618137364, 0.7318427315008954, 0.5968582633757125, 0.3493125129665795, -0.050699804719120535, -0.10212393933596942, -0.03005461805338072, -0.7972447686392108, -0.635378085569061, -0.4851955904713352, -0.8896177156204961, -0.7592582385249589, 0.6578740296469598, -0.075675410864531, 0.6185637803092096, -0.486519614481669, -0.7873445659218623, 0.09128887590475032, 0.5579246384686363, 0.7868475864639558, -0.16383357077006716, 0.017180152973574024, 0.7894122915006067, 0.9135860725866984, -0.5611944239846111, 0.14672890699793983, -0.2577327659971492, -0.9317180870692867, -0.881478133481562, -0.5929810874278456, -0.605703273982181, 0.3934267989095467, 0.6680490215928185, 0.72449815839423, -0.09124250944164358, 0.718611610760475, 0.34585622217550455, 0.13131674048732106, -0.707137297279558, -0.04580869766610123, -0.32990700353098806, 0.903788680965817, 0.24096149728313243, 0.9160733608550684, -0.22398354353325, -0.4583235985799939, -0.5350069577343594, -0.45084062549628784, 0.19067430491758483, 0.06556730355663606, 0.8683381853453205, 0.8279911008291334, 0.5325769729156835, -0.08619759196368482, -0.843699632673307, -0.9018329658886685, 0.8848430814161301, -0.41283537044509294, -0.1652360212387683, 0.1281437931017379, 0.5025691201449736, 0.40109629076189834, -0.4322226919031246, 0.1714140682075217, -1.1147948521001028, -0.7947835222344606, -1.5012683594287026, -1.2280865297974153, 0.3262199061437983, -0.4855929918587738, -0.3051073897984699, 0.6127148057080081, 0.7761333888750879, 0.48090270391384826, 0.32336395957279185, 0.7644320234577953, -0.27927080388022124, 0.9629224744551971, -0.12214591763399302, -1.0054824477112567, 0.4883031885195913, -0.10510528999092111, -0.5192261011399488, -0.8082124902854733, -1.4888091048086056, -2.9282688374297354, -2.2676467957367152, -1.58648491924082, -1.119292893057154, -0.25242312008058043, 0.8088383578220705, 0.30094383371038325, 0.1889633124956327, -0.8938110156264327, 0.4857762182050063, -0.09699195620117827, 0.952494827216524, 0.31252248607894023, -1.145376265248804, -0.41850249285859914, -0.4271157931545668, -2.4184629053512445, -1.4381402773438299, -2.2682312834691354, -1.8858148925745941, -3.3273994147437054, -1.9981203611525422, -3.022775187894712, -2.156141146262504, -0.752982378692057, -0.22965076730935444, 0.3524105020933491, 0.760258113143931, 0.4867127622866654, -0.3343537611848507, -0.6323967430472278, 0.39994622817307107, -0.78955267758967, -1.0139550733924478, -0.5810660972359212, -2.695854121293279, -3.0828023993422686, -3.188309965634729, -3.509161446162946, -3.3410792836426033, -3.002286010399935, -2.0672833971995392, -2.863997671652278, -2.4997548531124045, -1.6229003770940398, 0.04677017736953668, 0.09128615382319873, -0.6764443323981841, -0.7981632692748264, 0.6622111365401268, -0.8910397103719759, -0.34633806156298924, -0.3612517999574289, -1.5187689060047833, -2.6154644027873144, -2.904827843546498, -2.56602894243122, -1.5819699748173246, -1.2872267181469654, -0.32606096739554624, -0.5818483678321392, 0.1965056129732981, -1.0211304801183574, -0.7890188899703158, -1.5173407686570015, 0.6927201688296194, -0.2607741283808443, 0.015053906469822298, -0.005586571668542373, 0.2683240321887268, 0.835972649069751, -0.6470532338673662, -1.2596363485481414, -1.084734058771673, -3.1878481674742067, -2.897107000058657, -2.762354834432677, -1.3897081613237177, -0.4429097625030363, 0.3134754809004356, 2.6620344432119776, 2.0300085534995587, 0.29201371008817517, -1.484029695746294, -2.016916360787842, -0.7023256703977023, -0.3986026369228338, 0.27268284042667856, 0.17238846152867215, -0.5823294090181436, 0.9316500594761102, -0.33768415151603376, -0.44215593232779316, -0.6694077690684516, -1.4826374035297392, -0.7281001396209087, -0.46763867485080546, 2.0230054720434, 2.8467707685025294, 3.587277369417473, 3.4766636072231987, 2.039438843294198, -0.061424696167849284, -1.356848388465453, -2.30573435603574, 0.6017972814732608, 0.35356518785827945, -0.4567680814217452, 0.9783007663923693, 0.778120858067815, 0.653198074890423, -1.2098353450020736, -0.539455270177043, -1.5552859311959488, -0.7178753292357213, 2.180424007528976, 3.200555419475162, 4.754304040043167, 3.4660967650852115, 3.942029270228899, 2.6505628592543133, 0.3796146430203253, 0.3887165061821261, -2.253712765126061, -0.6382354630949683, 0.053483366809268774, -0.4522276411137805, 0.11678335867812151, 0.22923200221149598, 0.09179103981198936, 0.536429318125616, -0.9807696507726539, -1.520520804143295, -0.5758553876141472, 0.5851861994679168, 1.8156977031971882, 2.830073874904001, 2.566135224442851, 1.725232173312406, 1.1499930681257917, -0.2633508388973157, 0.26094286187737714, -2.4122233748859485, -1.365068581930985, -0.43393653849692976, 0.3865278856154235, -0.06165965061048883, -0.4278448154221126, 0.29733344104627535, 0.15446288910570377, 0.19988988716232609, 0.04739784178661568, -0.7885531760998833, -1.6721020270633582, 0.7516617382845725, 0.9451276469607363, 0.7691226508355086, -0.7618716977757695, -0.3850137903882806, -1.0389515109716334, -2.4289036627020435, -1.9101288698884498, -2.1367932456769023, -1.6865106284151536, -1.3466292924390233, -0.9531752713524126, -0.9666590158302557, 0.19401049729904463, -0.4188609262807932, -0.2602049099269006, 0.8456185930861357, -1.1385746344482837, -1.7904647644022023, -0.7018401834883184, -0.7004257370551425, -0.8422482455568174, -2.0279119838113973, -0.519132297480587, -1.8506334329466099, -1.3654391351719033, -2.403789959703122, -1.7266808943934713, -1.8740351864395675, -0.5143008721305435, 0.5336245840296001, -0.4982959062020601, 0.38678593731297095, 0.41174300588806645, 0.010449539387142659, -0.01012177089962497, 0.1649365325839435, -0.1979828539578507, -1.4620149738654695, -2.2017055111540595, -2.165475280991928, -1.6059780846021194, -2.109956943933703, -3.0715534999637315, -3.2040984807234008, -1.439253258226895, -2.7889275643802205, -0.894817039056665, -1.9294166945024092, -0.17509006715147135, -0.4515410098320548, 0.8328150917072837, -0.4328669979982592, 0.8122016818161759, -0.16734878201499326, -0.16878001128979228, -0.9743083934399701, 0.022247820448715757, -0.2322788404830923, -1.2197329241830313, -1.6748791073269107, -2.1421699921222634, -2.1223178877824815, -2.663915393502339, -1.2273398073068675, -1.5558039330003697, -1.4595915142488078, -1.4398070657246846, -0.8393301313255204, -0.06897226565067315, -0.9678448247762576, 0.9043321855422296, -0.520364656969031, 0.5927708576143953, -0.05408770707082389, -0.18400232044227569, 0.1770353815819064, 0.09286142860156152, -0.011095615842155761, 0.0041023005020867235, -0.5719850428943479, -1.7464175202888232, -1.1270606009631055, -1.026006175628195, -1.2152984753252984, -0.9602657403765723, -0.4317315525454481, -0.5893205662505845, -0.323266763136791, 0.19413536632085562, 0.8349253852345159, -0.8107855750058698, 0.7637730306948955, -0.5517253532252602, -0.6252245520725086, 0.45341015943610924, 0.8601351190005453, 0.029877544262050408, 0.2842300060272774, -1.0230712211163062, -0.5653684508636377, -0.9359749675152569, -0.24469327318877182, -0.1942356725182829, -0.6620593383826477, -1.250503810703832, -0.6805423800767733, 0.7133826781970222, -0.09611048878033407, 0.8835577767973276, -0.8337143207696732, 0.7139584516921386, -0.6482265410660484, 0.8246284826762467, -0.8737538205530497, 0.5580627156380497, 0.984587924344606, 0.692803466584873, -0.4640998604433951, 0.0688550034062322, -0.30634796897245903, -0.9698637837757881, -0.40907386574765053, 0.0653753788406105, 0.2548021649417389, -0.9243514015483968, 0.4849864763213801, -0.09921132990040428, -0.6634431110688862, 0.8085229948412135, 0.963967593291626, 0.2876926464505501, 0.9467419297201831, -0.7758871804269494, -0.38044816382297286, -0.565593822212378, -0.691222501757234, -0.43423455141596073, -0.1717715949841274, -0.22189238945755752, 0.3972223963340606, 0.1606302152004934, 0.5580721013547062, -0.5771202463240361, -0.28773229862155514, 0.7460928394871122, 0.5621454057060785, -0.6887957181719931, -0.4903184452226188, -0.4616538091202355, 0.3201991956154681, 0.6909502117595161, -0.835564185607027, 0.8115981251849615, -0.8496732597347094, -0.19573903797251924, -0.07398457274962711, 0.843824507124324, -0.6038906942354105, -0.9017383742669427, 0.11619896913441648, 0.05734560275900155, 0.9539143444267145, -0.06425059339516492, 0.4155903187112353, 0.26210951530351384, 0.14757764851897148, -0.6671179824097477, -0.21616583841298298, 0.9464322207448033, 0.1730024914794186, -0.19934107447173455, 0.38358052092133454, 0.9480024074617088, -0.5699443483880884, 0.29870817021845963, 0.797541920099355, -0.17867547091286418, -0.724609411402412, -0.1521704148079186, 0.8271063593096986, 0.8125505917975954, -0.003987917203919018, -0.5559673715608806, 0.2054504472008068, 0.46942518299390934, -0.8664906975756759, 0.5702788043814541, -0.33957900399025737, 0.5841138926419915, -0.3184361073929226, -0.16054320761919552, -0.040885438143792134, 0.4667162339288866, -0.8658141533631603, -0.9480678476658351, 0.7720664645363162, -0.699297037052782, -0.11992361864193082, 0.3388982296783764, 0.5196776674853677, -0.24226598504987626, -0.9817100287756214, 0.9377766954548157, 0.7144162183929332, 0.9670465589478445, -0.6808034264099659, -0.3641580979844959, -0.27247929023740064, -0.577648804677323, 0.7098860464881163, 0.8880390049622119, -0.622455322767836, 0.5106838517365848, -0.4026030417407225, -0.5295046515282628, -0.5216373122472681, -0.9918471989250077, 0.8731077830905084, -0.8848181154870425, -0.4083493146205182, -0.15385644002919327, -0.33250047148247375, -0.8988105801244582, -0.30039978115633403, -0.29417272508967157, -0.3063979498681559, 0.21437418750735415, 1.0872838205429067, -0.862881781838989, 0.38142247306299154, 0.5879125432428921, 0.1694592973760998, -0.437719724460395, 0.31209552720265554, -0.40395788590322396, -0.20585453082916516, 0.5907205044314341, -0.38306476182195337, -0.8171425868960784, 0.7210848357400406, -0.17056680163664104, 1.0883681553814366, 0.7247593029109789, 0.1675467930996523, 1.0464113335831362, 0.7926041158241732, 0.6473253485004514, 1.1955084977874033, -0.11399579271011498, 0.3192408454502078, 0.5346247226961166, -0.05623642810135247, -0.07491994761553666, -0.28372098095680665, -0.3620619375547078, -0.7986117372462221, -0.08102453375821522, -0.6804630626314898, 0.6801734544097312, -0.7477523841834575, 0.5585631818786626, -0.6519963454904192, 1.4393286323120438, -0.05577236923228374, -0.04477341853204812, 1.329095552450396, 1.3235087837277866, 0.3935457403965106, -0.3369901168636842, -0.5764239681858533, -0.6744145943443725, 0.7682081900723475, 0.35606373487577403, 0.8994925521097765, 0.2230087349293408, 0.2677508591563166, -0.5548851296687964, 0.1370446904227423, 0.44138315021390706, 0.07389340977843906, 0.5737068011663212, 1.4238222391123316, 1.200832000902669, 0.10069733939283657, 1.1168498709324532, 0.9165402977705461, 0.34239443078296833, 0.7155905039541098, 0.13532864492124852, -0.46688280544039973, 0.40649101746414745, 0.29638899481804065, 0.7987636546815016, 0.3106795961266584, 0.6928297151265772, -0.28193969549158504, 0.07275732015113376, 0.9872242779317354, 0.18457166036938014, -0.3996334886331944, 0.6439073817687057, 1.5700134081971566, 1.288523595993472, 0.44578653273892205, 1.1671197158962214, -0.7585444289067943, -0.08907933389649988, 0.22423596572385443, 1.146700021241597, -0.5573643463210944, -0.11910603652689647, -0.47421898600331003, 0.23230167235582266, 0.3193062450311679, 0.3745630005937378, 0.12103248073366701, 0.7774239396882665, 0.828538303741795, -0.4171149446175441, 0.4734586632162549, 0.4229945946841453, -0.3381098866466459, 0.001783180333498254, 0.2421223975652228, -0.07020628163226054, -1.19929522040194, -1.2352838691163188, -0.5845286870838922, 0.5288666306993045, 0.31639585180150476, -0.7806920178537367, -0.12767561713138711, -0.4717736178513421, -0.4387837927921159, 0.15965631259687146, 0.07489178784377143, 0.6364131854829064, 1.2340531005129118, 1.0206600290145946, 0.3825290785122219, -0.5731743218030607, -0.17947743494842225, 0.028438658866416708, -0.6793784498386457, -0.16893844519548631, -0.7902453814482173, -0.6520274134630285, 0.6702296774188017, 0.8672502277446178, 0.9012149973905921, 0.6719009229725075, 0.3563585888756531, -0.10349084418329912, 0.39325238921423433, 0.9455317117587373, -0.07086619391994156, -0.03276795197112297, -0.5466999832459468, 0.7874524218135833, -0.28390575853734806, -0.7205177221141256, -0.48077084451252367, -0.9763426535034987, -1.9388114407107273, 0.07195080380232993, -1.0312655056097317, -0.6975635334642004, -0.34205623784303246, 0.26277917168986226, 0.49532504984931514, 0.7415693226823399, -0.8804530574251125, 0.004012334835219233, 0.48575884837226924, -0.4718896874788864, 0.6484934345576278, -0.37571354418517205, 0.6883016651389952, -0.11758253106595518, 0.786862419789339, -1.0470459619107548, -1.2352180918842912, -1.0846373804814922, -0.883731097277202, -0.535735428598543, 0.5651985561335057, 0.7803527170354244, 1.0957667356996854, -0.39132553420477206, 0.9970155591738667, 0.7000576077785121, 0.2292813951668414, -0.8368046610387123, -0.40034497174893335, -0.6204099379496982, -0.9487488800399605, -0.7847028590982564, 0.9568100968203839, 1.136156864445451, -0.18873204961627058, -0.520196572061875, -0.6269289882043699, -0.6267016592125982, -0.021408827143603204, 9.505059524118119E-4, 0.8496568814350491, 0.7018596977178073, -0.4014878106912639, 0.9344920863764489, 0.2321806739274825, 0.9590792091290203, 0.7747868949618462, 0.11577831184038856, 0.924852002819684, -0.5969806974946755, -0.053097903627649504, 0.6868153905340021, 0.2846548862055513, 0.05435411264671722, 0.04130123671007728, 0.5276402549803403, 0.9958198170574355, 1.030347859844532, 0.09841430177943948, 0.7300668225259668, 0.37279027628714245, 1.1949914379208844, 0.4347272728934875, 1.006819957404914, -0.15822420031674123, -0.3498127362527739, 0.6207641530390279, 0.8755353400588752, 0.9993594598302773, 0.22698076673092046, 0.0626019260558099, -0.5719964570892687, -0.11955942497044017, 0.9873754752233175, 0.8762283010588593, 0.9618596224997065, 0.42358347780770517, 1.2495213065731445, 1.2808368461739807, 0.8113224325476385, 0.3712190382122127, 1.3718992889361508, 0.44699334485104303, 0.2555073991623614, 0.5484117284630582, 0.7507217193903487, -0.14092642559968283, 0.8463431217475419, -0.8164910456698493, 0.8858931999307514, 0.3447740963547176, -0.23290826132665565, 0.484244866436438, 0.5722142424259044, -0.4388609746875144, 0.7814165224070748, 0.3002819729265151, -0.3048131407725365, -0.1054506059304063, 1.3980712779377706, -0.3062018530559461, -0.28049112707117885, 0.944525751911091, -0.8598700806215175, -0.10568873896506313, 0.24135282326369215, 0.9839491264938729, -0.003937053718922945, 0.9312984466810088, 0.8283055574543159, 0.25467381535134564, -0.11233586392062785, 1.0735385017798453, -0.706289668376443, 0.7692214713380852, 0.11800643340700313, 0.9892486102840005, 1.2959024194085054, 0.6050010184736044, 0.7719525627091435, 0.48541296025441705, -0.6680053239453978, 0.3874668551063563, -0.5146806676558666, 0.7468562745330621, -0.5587203376644232, 0.1162829613127735, -0.756211075020043, 0.6809404483049524, -0.8978423795721372, 0.1464476292592081, -0.7781923938856828, -0.31188722264794483, 0.302314979685886, -0.4263554506630206, 1.032012247381786, -0.5541020312391078, 0.9276317902318576, -0.8486321651862118, 0.6457963445007786, -0.13042894366005872, 0.020404608813093084, -0.027150375599484213, -0.7117076034722566, 0.5686790784465041, -0.29043995566389225, 0.2130259277161724, -0.5925540155868099, 0.07927409360278803, 0.2887165156947879, -0.5915470059732502, 0.32468732067824985, 0.15379230108333575, 0.30776865352957533, 0.3306671236603018, -0.8836068248063613, 0.28076995012603756, 0.3438470305227048, -0.35863135709344085, -0.9378756133760527, -0.5533381299544804, 0.740545839888587, -0.7565719048158479, -0.5427009472840687, -0.15861561739271207, 0.6774761974241691, -0.8781051013674348, -0.9393233537415706, -0.5402193850618662, -0.7119966490716474, -0.9745801012533537, 0.10156674932637971, -0.3823569110598867, -0.14547676440193458, -0.020848624418563763, -0.034975775752317924, 0.13404202554003186, 0.7480666585804099, -0.6886715693565572, -0.5127093295918195, -0.01648821838808592, 0.08886883691424229, 0.5765448142887507, 0.0372258042568792, 0.22143643967622076, 0.9651042822600941, 0.5780964478330715, 0.46240736842220187]
[-14.611636620235574, -0.2525226766130696, -0.4247223988368475, -2.0100433671824676, -9.9704400822093, 1.6221232099379403, -6.32353767080161, 5.055857126786644, 7.324962772924105, -3.095440102548891]
[-0.8461501484034369, 1.5406488986153553, 1.0103117781244892, -3.2132095481433574, -1.1489864678242057, 2.432006145062194, -1.9244908442587119, 1.5847074614546208, 1.19927986661611, -3.1102273347825142]
[-1.6510226538661685]
